function [Y,Xf,Af] = ANNModel(X,~,~)
%ANNMODEL neural network simulation function.
%
% Auto-generated by MATLAB, 25-Mar-2019 22:08:25.
% 
% [Y] = ANNModel(X,~,~) takes these arguments:
% 
%   X = 1xTS cell, 1 inputs over TS timesteps
%   Each X{1,ts} = 4xQ matrix, input #1 at timestep ts.
% 
% and returns:
%   Y = 1xTS cell of 1 outputs over TS timesteps.
%   Each Y{1,ts} = 1xQ matrix, output #1 at timestep ts.
% 
% where Q is number of samples (or series) and TS is the number of timesteps.

%#ok<*RPMT0>

% ===== NEURAL NETWORK CONSTANTS =====

% Input 1
x1_step1.xoffset = [1;1;1;2007];
x1_step1.gain = [2;0.0952380952380952;0.0571428571428571;0.2];
x1_step1.ymin = -1;

% Layer 1
b1 = [-1.9239203952937808939;1.6420987077142081834;1.7617009834705441573;-1.7387787061096668939;-0.25245682713292066923;-0.65967827709890480836;-0.89742817917938533245;0.46145300140825074031;0.59220889519354180663;-0.0042400069137433996774;0.15235709856106671722;0.46410661888390059016;-1.8504050283513595598;-0.37830845590480111085;-1.1789263601565336259;-1.0619148572428822597;1.4221390216534874895;1.1287533265058158349;1.3247226223901156228];
IW1_1 = [0.002269308060825435229 0.94539574779412416383 0.45737867020122768835 -0.39941945385368265997;-1.0481039056597454273 -0.68526534278914874587 -1.1738860029580220345 0.16074376246765453846;-0.70018698633127385289 0.18482024041935243841 -1.0584145706034771006 0.13901576335217835645;-0.072996093671232317734 -3.0876980612396338621 0.93377725046765880368 -0.012325449167806840078;0.012580505755275644617 -0.33656176075605831466 1.7050751496242460004 -0.22034865880457607523;0.34985475396964105244 2.4628135844037126745 0.14301381037521668227 0.013074754686318398877;0.84942058504651174466 -0.28588985967806346267 -0.98391644608148576268 -0.374022258476084557;-1.2080988087040895884 -1.2796872129134462259 -0.2631481862298751806 0.17328153124179285216;-0.87899234814781490588 -1.1192943508936530339 -1.4283269460478622559 0.079511848849070976275;1.3490635268583943684 0.79811454705779583119 -0.77512167979871204881 0.099832675225637226846;-0.18922783977445212233 0.94440904168952310993 -1.8867549063413973087 -0.10551966553340011434;0.26262399943104036693 -1.2779743130080407632 -1.7104216595948875668 0.067910344703465339022;-0.056192635849998694153 0.20912851729779741161 -2.358721627272196919 0.034911610961293484956;-1.252561297906108484 1.1248727209920903469 1.4942264311181212566 0.085927383323581685293;-0.31874816405895983751 -0.42721756107746094999 1.7131647731954839919 0.22549494131530853358;-0.29247324236655708463 -0.30754755851856918625 -0.79314014402586519026 -0.42082889354536839877;0.046209634483247233327 -2.3393306919122935916 1.4368637272129629601 -0.04162318351078398565;1.1541999117108852069 -2.630117020466891109 0.47752052262995847709 0.0064681411115288340793;0.82397969993355713036 -1.4876820528106957653 -1.4564913428041290633 -0.0071511357901935367759];

% Layer 2
b2 = [-0.7728642801391628625;-1.0717257258681982535;1.0492844518733592807;-0.59652375262170187487;0.9174468884055951845;-0.78190403673727537637;-0.51354523102287175096;-0.72284102116593351717;0.72497549453078846682;-0.34532101381570173837;0.47630698978340052507;-0.164482207868089092;0.075697607846090295136;0.15253580985588507946;-0.053079964331135549849;0.11806055888980686308;-0.20590882911323665772;-0.11336932752687448045;-0.66436717304123849015;0.26238992516704295888;0.34771932818849671243;0.49533297671385467797;0.41189967540030164583;-0.36381447743991573995;0.54244550819739112413;-0.95343126799838606722;-0.8620555167502882421;-0.82955822405690471388;0.8948591076610097339;0.83899942298479390779];
LW2_1 = [-0.0040321236151773381939 -0.10946554300920136038 0.16471692061803258622 0.070751072734149808574 -0.47377916463471109187 0.1279325427529607595 -0.55352049644162903963 0.48527896088321920143 -0.12159075378815352442 0.32966839112637452702 -0.012807916881225123173 0.41201499867916807629 0.46638930854100651979 -0.091448622928149869704 -0.090507472741637826075 0.15064287367596779221 0.28971347986033285649 0.42635715597499124208 0.046818378617811878817;0.63133393189662312395 0.070311511948904184544 -0.16910993479655764271 -0.071468795173998719839 0.189180116459327613 0.43473067842427143281 0.18285093753804518291 -0.12591387724289215821 0.17389844258223111084 0.28968672899190944792 0.45565112801338786275 -0.15293280730480185436 -0.22527446645235346678 0.24866866285825126037 0.067552561490001508671 -0.59985687433609957697 -0.066534440868994834672 -0.27936830833421966158 -0.3403652425448159824;-0.22561414456872763701 0.26229151704183717442 0.36873868283816613189 0.39462567474903303966 0.2373178196535921658 -0.049949627834638556101 0.40941824389331443745 -0.16466297969148055436 -0.030077889548156704069 0.3768623596000420517 0.3246115010791417177 0.15491309331706720753 0.43911054382632597193 -0.2835402083340925472 0.2374202945154804123 0.044667642245844789428 -0.21983161962149144752 0.22816339462504747759 0.71673005835031844413;0.26302988218296347034 0.10291749895905417944 -0.12610789513528536387 -0.13864765295892186869 -0.2772038241765499289 -0.032512826839518893518 -0.13768341852155141503 -0.4861698738980153589 -0.68550283673062684109 0.33048549899760254478 -0.84143383253705095193 -0.039631655038962904092 -0.93809656676937480668 0.17296705047800270405 -0.24609822471795600451 -0.36010461480803718226 -0.12842721855439545586 -0.6624946515011572723 0.11111805847769713751;-0.39290681301745811194 -0.10488635025381422283 0.43677855240162216655 -0.28594556529119830035 0.3269094373613261606 0.43517205089556998399 -0.32892664316475300756 0.43526192632469407062 0.12225388139841672497 -0.67419050548433279157 -0.57347977494208923765 0.13516203506669682843 0.18008639265983650279 0.12287975388971206225 0.10288612812617575765 0.2663237663220196505 0.94419958599880215999 0.72899019640705209344 -0.14895783511796920062;0.073815848396601671522 0.45414722361419318508 0.53418628941410728483 0.19457855999749792963 -0.54646052724380478338 0.91500834711563328039 0.24271580228695274761 0.016712464510179908528 0.065419844790890233077 0.13971314723195646379 0.69109225450506461819 0.10390311205071806055 -0.13526028827027658519 -0.25396122350378819155 0.20704746500568360634 0.28269440698131004241 -0.57048582389191371256 -0.27791113014820512106 -0.041434110224421123736;0.16369922371830133989 0.15909909446979964009 0.39968895532933490511 0.69153338949370668498 -0.05603905784781305216 -0.25726213562153960046 0.21852752594529506469 -0.70906793311612881237 -0.44883574133104264803 0.46143799321405892799 -0.20710745299102428785 0.24776091439157876817 -0.68927677553118238407 -0.2221483914066367249 0.49602971078846930242 -0.58764385406281449686 0.043792082069367993524 -0.30928579660066823909 0.069825805368529517136;0.47422687723682521721 0.024006971666253519582 0.26077051112924320986 0.69909338320919867105 0.32748060653957788979 -0.25393828656745681682 -0.17283414753783038487 0.1425757512042422348 -0.47381154374386968975 -0.52552400761822792852 0.27996851553322199546 0.50680904633156032002 0.048664045468599502475 0.94854316516833325768 -0.13314609853829767472 -0.15043979116978400956 0.73000391612645731954 -0.33527042115561112023 0.45636985748412889352;-0.4761128877167667417 0.36440306951088813348 -0.70835526335610787818 1.5557302608809968625 0.31790854415224145679 -0.018274054296768278 -0.31560223824154365335 0.0055403648572840621944 -0.68732001414236432169 -0.11437149441816392426 -0.72999247148499790683 0.39748346446811544386 -2.1912782754252515538 -0.33839235430330916188 0.36032652442456641895 -0.042130105246481933112 0.152112371060474455 -0.22951700148733422679 0.28600936735827564572;-0.015068773204178898331 0.59282329068443140319 0.24454163556229460696 -1.2437317325551264791 -0.24200761799638098593 -0.25922205233035122696 0.43309001593942214603 0.18517914817396596838 0.33022041495781656595 0.067982740140154304664 0.80719325539051556273 -0.24655533919417382815 0.37084304646285198848 0.31631227515542970075 0.22495588150840103991 0.037865085723135315232 0.033799639698451233727 -0.47638801736081309857 0.11769958776161212888;-0.049606285530176458254 -0.10364040432677722181 0.39436553580197281077 -0.077806784346601418068 0.31084830991034040348 -0.34030984262445135302 0.28034416372831033604 0.55806095254765852864 0.033244747957315669284 -0.17242388590594931452 -0.053183568596927736916 0.54238135249969543494 -0.38533267768689938304 -0.60264203306791375159 0.5622651528879848426 -0.31760296979702895559 0.31430244997992679012 -0.15228936771162532304 0.15391275661288311705;0.15508080006242866422 0.35379740507710172315 0.11014670839298242033 0.59928908749794318478 -0.12144520927376682706 0.37168028521968488054 -0.0058722295084076775798 -0.24076098095927625509 0.24584432541081119306 -0.34842759624651237216 0.31095357156223363271 -0.17462919129049095379 0.3226190996066407024 -0.86013669385198121553 0.097990630405650716583 0.23006136024302242804 -0.87751562417338868638 -0.64977450315313489693 -0.073844977344998313784;-0.08847177340831818837 -0.22172436761968816743 0.07447942912234881141 -0.71336663096957120267 0.44364400681249260838 -0.28999956734147624982 0.35162861729578442915 -0.27863275031412537697 0.066829122980842384227 0.40871250438572553909 0.54743814998970707908 0.21340474742099702077 -0.60733755745993212027 -0.47953118115809439947 0.28747670410426040544 -0.22029902149101832087 -0.13400456073283947833 0.81608385839635666503 -0.28093735812009956732;-0.17390296759566767348 -0.22843869406693659285 0.57149653136380462737 -0.63141480929248305909 0.38423091540014403522 0.28480997787663575593 -0.36939009341137091225 -0.29548772396232736437 -0.57298356237290459791 -0.69493835260939751386 -0.31979585011174249676 -0.19962034766797223662 -0.23236436653151784637 0.089901515480212426668 -0.27422071962128180544 0.19560049488432182385 -0.49561779157571778098 0.1720145762097608777 0.49989968840334808586;-0.16641031422148766517 -0.34754215097052026939 -0.049217394945857320665 -0.31665042823305894482 0.053621899245957567459 -0.3384207882511613974 0.27108722986871830463 0.12910243758130351965 0.21929928508608539928 -0.82816701167265149852 -0.19800393101765567661 -0.14118867470707172074 1.5603033609224730149 -0.017050532734239818439 -0.016523213918522745847 -0.046717490168270078832 -0.34048704231215637384 0.97924049103205423883 0.14221785651362908731;0.3101280588710706998 -0.20637373929924482385 -0.20320587201884213191 0.63289692551216492067 -0.3251712953262673178 0.48773051012445001184 0.49082850420345092157 0.089039067214195993794 -0.12266458146312386734 0.13546703004319957109 0.63987430921772392445 -0.24122489225272247815 0.19678086159503385688 0.10879515320641745812 0.02814876377945079583 0.4469331502663257405 0.084004972416949430514 0.18481778154761380195 0.28073052321480884697;0.52957700283991193668 -0.27700961034698162733 -0.48635350610158872842 -0.19175176722325590339 -0.34199514979135142712 0.40370422674817413311 0.068286194964328916779 -0.91291759973987740562 0.034989322028218437788 0.43976813571922668267 0.47660325568924061246 0.084422180092359050407 0.15036278622752624612 0.3249075312870128851 -0.049661314216790708453 -0.32261225607133436899 -0.71959814964627699663 -0.75525487245464850705 0.40910395850320235844;0.31206060607964236642 -0.083745413183701003512 -0.26967638371286750676 0.10797989660663213918 -0.026235915159593673623 -0.26717987390350811383 0.24746122155267569198 -0.16004659452555558552 -0.51255389661373651489 -0.10761954085975866668 -0.3242221050206977595 -0.36325736412026726763 -0.028980041078037487717 0.73047978158736370791 0.13760262800903497182 -0.13883769147248070652 -0.0095313526768407482587 0.056206544108558131878 0.023005131912463960137;0.29016057981916010267 -0.13350372572385241221 -0.28129667505811595252 -0.233765557870001639 0.85156913284838731126 0.031396330759955751177 0.18909730767639942872 0.22853385591448144298 0.034890884571079722187 0.44446713957252298455 -0.092171755409625036326 0.11728098746917724193 0.096970082319272885019 0.39961739904145338054 0.26372843306782506323 0.80069576838701028709 -0.10201606511978575376 -0.41360005427946394674 0.093231597966330265193;0.046758349704627603927 0.021554987639502865004 0.29805346381808528466 -1.0371131523203960256 -0.035576440604790170175 -0.27953663295604930239 -0.2142108005708663887 -0.4743785301227280149 -0.13023377449975076514 0.38451291496980172235 -0.50921026665407198575 0.27592398412311719413 -0.83763165131212136139 0.44247410313369611723 0.31392374040255860423 -0.16644226699177749884 -0.039755419316222666282 -0.47993245968734093987 0.082226701189437034767;-0.24510805676464531011 -0.20243216441640787817 -0.61368779031368536625 -0.10503132958052061041 -0.505835638109504937 -0.36882120768623355422 -0.439892256654645597 -0.36698420231520251233 0.25647176265890858637 0.4803051421720992975 0.17565660324324899877 0.77022043958709129896 0.15451020921832159249 -0.071120797341297586902 0.54184562675269642984 0.43723453808889739536 -0.32937824225159845204 0.11993493071022200136 -0.12602721319467233285;-0.056734930967649380151 0.40932289633049384614 -0.017233415768670060086 0.26524072889714034318 -0.57017366786929501998 0.64526784393936709172 -0.31044520090760130415 -0.069961406685284346918 0.41977530062891305063 0.27918015284814118315 0.17728683801002559361 -0.064104119916273183399 0.3737147535564653289 -0.54652743883904575384 0.34223489278584257045 -0.25759211741637721982 -0.067592853662301291551 -0.24655462433891150997 -0.071319501639750190747;-0.053667991090226595252 -0.20259428130428674963 -0.57986939270583681694 0.21893887921173110778 0.39749683553931136615 -0.10758426978822047126 -0.6840349103846652401 0.14687155319662106856 -0.2054002162885988636 -0.78284022074436621086 -0.25677152680102399707 0.17486468734243734713 -0.28252552548639364716 0.83180794171612537635 0.12349208394573703285 -0.12301546562090381887 0.8187449207844977872 -0.20500656457216387407 -0.031562794125820713143;-0.33215646403174065027 0.19213216388580575678 0.38965334764085246544 0.13555635600336338187 -0.48193525598718972569 -0.73037586574884172386 0.08820751480854348292 0.61749737521094172354 0.66097159095022095521 -0.27128878487663848906 0.07033164578190344296 0.031486844224962007299 -0.63078127166371922296 0.35571868730716205143 -0.45344853022042352908 0.086096744786597775856 1.3660911032790341579 0.11798455700749216346 0.067708239554956001216;0.54429961190597564435 -0.3239795281170309571 0.14974522030376402615 0.12520707079238285742 0.46363003645499395455 0.18574590837980792246 -0.47798228597539493823 -0.29611073616428368327 -0.46002628326741401565 0.1323104140234397097 -0.29367699218177811815 -0.13309639871494016727 -1.0722595698423242894 0.029369440014587862298 -0.11091198826902586017 -0.40237950303343833491 0.14545026811804684375 0.10880658805164628022 -0.34657317977573076639;0.079245696149474145753 -0.28040449815668144762 -0.069617538075002052822 0.073047609897748333463 0.49935572253653737196 0.35009099401038673571 -0.10360777147783349628 -0.25796447915231141002 -0.074543863454762382403 0.14371567278716845806 0.3033697066995935665 -0.43361100315252631976 0.32022709381354058644 -0.099553615235063730449 -0.16420796406717513838 0.011354091283686919625 0.68496683257109147736 -0.13204208381721838084 -0.39003401853946861877;-0.33245197809160559332 -0.44380066723961131281 -0.069555322725380522297 -1.051407294172009399 -0.026656979841933915731 -0.29325016934898717746 -0.19992271002461470264 -0.25204769563013401656 -0.33674990778263547142 0.36644591874065424175 0.22254696414519103964 -0.0092880127680743454488 0.35260688247642280047 -0.56806209558758202771 0.053467548220028388029 -0.10513346587334784776 0.18256079386885609717 1.3194715070789169165 -0.05382236650169207326;-0.099016048816361251772 0.32612383939577810343 -0.017591937840809989541 0.29131260566936784118 -0.36800489778739936542 -0.42731072446112178254 0.60792028148900056905 0.95478768692343352065 0.077063800782386213117 -0.73554857966350961629 -0.075436367897557435325 0.44269765869061700192 0.6675695098382897763 0.16222778161432294119 0.1480550440151888747 0.064169746873533009546 0.37375569288632953802 1.0068466740334509613 0.0051508881997738009684;0.31628454820452861496 -0.022040323020217768984 0.180560231548307637 1.2039088175541574621 -0.63569161811082075531 0.31058087634666670107 0.14081051317134607448 -0.35429879689983612145 0.61914588211340182422 0.21561732127047752994 -0.76238371281280759018 0.094553190133358180902 0.4575358323006969985 -0.010766048973161810101 0.21246994874910593576 -0.40665244143790763021 -0.34324324645199943973 -0.89096486528820872941 -0.22135104951434536602;0.083673200991602747489 -0.059142420710377702209 0.272171006403100324 1.5514413693614483858 -0.37611808340554908625 0.83775042728443371853 0.046847977891100990588 -0.31447404244948645724 -0.35587346992858182038 0.33369853244003699899 -0.20815280175811032293 0.2008936201936215582 0.30602515867115326342 -0.89428860931979059501 -0.54552674845668736037 -0.0031807141436008350664 -0.99556326162313446559 -0.55805082303635322738 -0.32038554501646782091];

% Layer 3
b3 = [0.93797162288091051607;0.79270659951251631892;-0.7565409123644513123;0.5114840490189868083;0.60515507357992592841;0.28108635062174130992;0.043590249403137708295;0.46774687605932985246;0.15042063110639439238;0.45786212343282711723;-0.03191840199715478138;-0.06343606900348713884;-0.18859661335186073128;-0.10928949466414049352;-0.54553513557957167279;0.54296570643010455548;-0.52911473288646992952;-0.41582777028414202869;-0.81160595443620220379;-1.0213103796211546737;0.77477394200145477399;0.93596569752503544493];
LW3_2 = [-0.2803383001328609847 -0.055896828237027976205 0.45002070794807347287 -0.0086761551978948338315 0.11557967031554432225 0.10254795516907556918 -0.40172693891450250714 0.25247226958114182827 0.31876138697725586724 -0.013343400326683105966 0.16621655095232887311 0.010304737688979617727 -0.20974054567499667012 -0.23405068570871737088 0.25174840987846858198 0.060367891179059357532 -0.25491458899440960773 -0.26958573105877930987 0.092667866440995283472 0.16110865207391472653 -0.046145435136210111171 -0.23394826973772742118 -0.15976510441365276982 0.11461124486813512036 -0.060543609199213442584 -0.039653862783844806561 0.1282552761582715084 0.28939462045005087676 -0.29544264149610582892 0.22133548657227225531;-0.064336392568842271089 -0.36913868476213890224 -0.097382890364882068734 -0.37909707335258457928 -0.38357047151120671202 0.017178062883567681712 -0.27577632050466915903 -0.12685306732601689395 -0.076298695359075643929 -0.1458676944607404935 -0.26656232351575137596 -0.19343521629738413825 -0.18918136893687206856 0.19683164240018566349 0.19664745660173230113 0.019022082145215387511 0.23627171611493530401 0.091018129718420923147 0.034619396673646947449 -0.057084556801492582212 0.17151442341334505182 0.011887902082108573951 -0.035106200427302551581 -0.09907983222787396238 0.25619137662643060027 -0.26440739366552595824 0.022178170899793594323 0.19281655704557379427 0.025109464771360830854 0.19932110365116789685;0.14941369088591902048 0.19937504824963073191 -0.2314611608869056314 0.37414805481969420908 -0.21091433175489229801 0.38746989729997166618 0.19801449138743931755 -0.23093148738029173339 0.17673828053470949651 0.082197410848771038094 -0.23099854230691740931 -0.28526421892253966961 -0.11263858027280783392 -0.49460186401624894881 0.0016601436871620666065 -0.10201051649200963689 -0.24878100423182911149 -0.034130282047035109816 0.1870605769865142376 -0.044263008569142822668 0.36454623086637533147 0.35966902162601321891 -0.269955552492406603 0.20439016687007677264 0.37628766028385374209 -0.18288757169673261482 0.11658800453291677524 0.028435186831540230218 0.23645104259741653308 0.33547507328196113363;-0.20448888026906686388 0.07705976933130712081 -0.57101625492740371026 0.03413140993555014574 -0.049922868085262181448 0.16379486790008038199 -0.27250892854858405068 0.78479684310403330372 -0.69579224260873384633 0.48117177490507084814 -0.36005390654036051323 -1.0476584353899405233 0.12136658061501330585 -0.11627079945834065122 -0.085308964664047359783 -0.12545507079243278792 0.17992160876205606779 0.1056977867143237132 -0.041913507888260058409 -0.019378268267119001106 0.33995373718273103059 -0.41256919260918217818 0.13388641569990583635 0.95947638501200704919 -0.56762190803511225479 -0.007902347776993915926 0.11213141651715834157 0.21379508921511991559 0.16564506807706352864 -0.7313951212032075988;-0.03461580928878011526 -0.068314345733663753291 0.039424129457809035937 0.25580438613514733248 -0.085276217308137225448 0.075179295709176391371 -0.14208639624123176048 -0.46860639683080074214 -0.27301758253534508247 -0.24359982509090358227 -0.39269449962201463666 0.20998994607164811477 0.095250858742312607963 0.32988461970472005014 0.51828655053730809943 0.2494995684971963168 0.080892458058119745545 0.2487152670510761332 -0.12327270624731648252 -0.4492945425939079418 -0.1370302115231539497 0.39837907308827702479 -0.019517530011927498867 0.1278789231615350408 0.20979457734352996434 -0.33711712534085747084 0.55466004792758527575 -0.11732994881772462747 -0.1046841974084661564 0.56794075380213993043;0.23179964200620722936 0.0021880594014834493614 0.3936697751962395242 0.60047815150889560787 0.083578854924100651203 -0.27529807058739674819 0.21093670399127972814 0.060421711377265437115 -0.77970962338052496321 -0.13586201000843087239 0.31979894300370842464 -0.47068267095548549372 0.31294477641775053645 0.3005655106206601701 -0.15710322162016099323 -0.24201375608677302975 -0.2166455275404436942 0.53822325169665186095 -0.039431277609102532988 -0.017815925844400514605 0.3447790209046531773 -0.065261044659101999366 -0.28072969263487845826 -0.53271035059173910131 0.59446465357774380678 -0.3218093229518551035 0.59003473624489033433 0.35873457774951467147 -0.35557297880330845929 -0.42148454645620975212;-0.45293327646313091828 -0.4210467887331115211 0.63714227043222027014 -0.14562968348733848489 -0.054698267541387887714 -0.22650004697230022299 -0.11601733164671138021 -0.2954606614678226828 1.0295728229993730274 -1.3386358333558963096 -0.42081843776667454682 1.0055829460454399626 -0.37555310458059260048 0.5638063461261563214 0.59567913689620344275 -0.15096246673888463752 0.38157498239286641306 0.0049154216471147590267 -0.17570512982980560079 0.41492601559126102151 -0.10252721681930176967 0.085759243084843242433 0.010519918848275473799 -1.1671752131682082698 -0.36721780279307841832 -0.42872732348685244075 -0.63618988986360935911 0.13446016109708830433 0.54836414243487663356 1.7101948506524353721;-0.442074019714502775 -0.10287577118285790023 0.33454589232902809393 0.31156009937310735758 0.15981738822282637313 -0.25534449989098662037 -0.31978936544093838901 -0.19853474334001813828 -0.72660708632859438705 0.77517180207790836732 0.096008700948065420211 -0.53777721150067681055 0.91496271316316846178 0.55883660411026458981 0.0059248485821481976232 -0.87277408882256335421 0.093989925236219684646 -0.15523450348641867902 0.020735117901109666877 0.53185561603128317376 -0.48534076343523846475 -0.40935502785553645744 0.048564990573555393005 0.092153055869372418885 -0.044531382607735356394 -0.21536585611476638524 0.40142799910211468539 -0.18221128409841313989 -0.89106725183291535242 -0.52598879596984304818;-0.025754152162924672659 0.091376102404572973059 -0.27497256490091848136 -0.39782336684684538319 0.58636902182607286704 -0.071267256264879771943 0.57938221827142377673 0.37896432417726516606 0.31766135691072594494 -0.34615134432633715145 0.083877751471698944186 0.19045682979128550349 -0.015381262240169977368 -0.20885298208646688178 -0.58445867968098907941 -0.24378726589956351001 -0.3898759339423973902 0.19841600144269816441 0.43880968629349470511 0.86522753045389988458 0.40836236703925538061 -0.29654010594829838254 -0.40787584091746986736 0.051550286234884314107 -0.23081925884122084236 -0.012836636173565901461 -0.65248892483798814901 -0.0014703658892244980249 -0.37504220651162423206 0.33096020437188589103;-0.11637255782193912934 -0.15087314321971354025 0.041879342911428800444 -0.49320884998656772114 0.27929641315490788545 -0.16880022436312444589 -0.86682056623795133987 0.014956023833327346945 -0.040075382804626039079 0.022399121530304665767 -0.12733245067951659557 -0.17512177879336737751 -0.31854462575802811042 -0.5642538275101245393 0.44848751251735130552 0.11277018898519365619 -0.51918979853079882947 -0.027529456721693209426 -0.0088816943675686724213 -0.46538590483916281171 -0.3701961484599446961 0.14083914887458773291 -0.48443141199049843948 -0.089226774298842181921 0.23375981500427434057 -0.11456963695906847989 0.22022907106761116514 1.63808020450412406 0.57921535582639105399 -0.20753413410208856882;0.0046071982460258974201 0.27885733874244306163 -0.34656808684091272577 -0.15626781505272638317 0.23680701465208930934 0.10930420859337797168 0.35508596500705924548 -0.22796432185487663924 -0.0071280002809724473528 -0.098639669045587796692 0.49488538760570843777 -0.21632533583214455519 0.55350673487669865835 0.28991841447914745711 -0.51787955949053765536 0.10830915985159032811 0.032194192130622779902 0.055659871794489716723 -0.13438964786387533334 -0.29157737253096366326 -0.28159575645403056576 0.30402728551167479409 0.034757909004917965368 -0.52773907584715951113 -0.084584505020716752033 0.36544082895802909583 0.17409980588676626789 -0.082434724153329988483 0.53906993099709032968 0.23756790855312162614;-0.057157717158531684554 0.035976782658956513172 0.35987540002529139205 0.051917404477845090216 0.19252955421462142338 0.46201463840890444335 0.16025003498164069882 0.22089460164681584686 -0.51901864015574827871 0.20631257656276141832 -0.058435740807781043349 -0.080139719701866576895 0.48385227158405258452 0.056763948870714876771 -0.39862147562798905254 0.28645297748639542146 -0.023525062717877749663 0.15622754735569790996 0.0092627869533570706545 0.17198098047995147297 0.2211513958728798801 -0.49771769590772219072 0.33428527466908869448 -0.20958217963944250628 -0.35358245738016258475 -0.2545527778561381127 0.23426037318615999805 0.33346913071289568942 0.025367524084715604993 -0.62781329228471904891;0.027807485894038329322 0.31032586280417678859 -0.11094314451785255993 0.096246145999735868704 -0.22919585087839741688 0.10853885569849301695 -0.1047538763148491564 0.90993381425026154119 0.85706984224052151777 -0.21762461665891799645 0.51067169491010044879 0.29327936540128468623 -0.44990971101099791474 -0.2033652734960675057 -0.22600520296210319104 0.3252073511342551404 -0.12454407888143848027 -0.029113716586128653846 -0.10109758467835780471 -0.32194305438852566237 0.2398502571776019443 0.19883114163140122588 0.58277605934478904359 0.38339954573251339154 -0.61915411410144949311 -0.082228982009270659703 -0.86610004636282600377 -0.10357716759799313888 -0.3453372866589826673 -0.60838975070213496821;0.34836571858662440659 0.083345799796914310509 -0.33912120352491337272 -0.036807314817288092068 -0.55760800780200003857 -0.45147738946311377628 -0.27596450950448514483 -0.25080261704154160896 -0.33222726394287560581 0.15169211770033813602 -0.26905313558858429124 -0.2387525215473607354 0.059801166290412641202 -0.51620596540406438191 0.83072224921772508388 -0.23530636471637578211 -0.15044384464796548007 0.050553896985115934215 0.43025819468683035307 0.087583258493006799217 0.66116264476115294002 -0.00075184223139966544977 -0.11730245536778455273 0.20811673546511152977 -0.55146232988340759817 0.64369816463539697438 0.69775908129508612543 0.5418088602919796104 -0.26406308328409155983 -0.84221390083142089189;-0.49924754881472799273 -0.20431475405489246677 -0.32949254830337909583 -0.75383465636761981532 -0.29390572951840487903 -0.026538335345640151619 0.46553729927821091428 0.14818435235338264788 1.3839771681205208509 -0.11162973783161847519 0.083168153002060984935 -0.52809928535264671901 -0.075453856867565588518 -0.13028414683420064257 -0.69587056469674446468 -0.22462840164126329778 0.46538454594932204822 0.13771245080320618226 1.1693880268351644069 0.18657912188756642369 0.29377301836260399925 -0.049654705948160682283 0.53906370793559710286 0.61438097588414941619 0.13177002006954480207 0.12590745219620774753 -0.86780409164639837893 -0.098646403968055143552 0.17271596570042535568 -0.3217726486803738073;0.29674439581841771663 -0.57916479111295504634 -0.068992772540053814989 -0.65246912467466045005 0.71790058186050487166 0.40031475133349248008 -0.42826343594711008267 -0.566964610841849459 -0.3110749748455411412 0.38179154279559346374 0.24705973218315227524 0.10111728560463167925 -0.89178801337782709346 -0.26191391457748802729 0.75990385727679177208 0.59563179649708819507 0.20617387985831125974 0.13083146346260809967 -0.20886735436617459571 -1.1130462799337532687 0.34884955250978383345 0.80636370042707494754 -0.54009036911963770322 0.19837666840319650996 -0.74416907872632576115 -0.056821172208412318305 0.38007024749317247503 -0.03080284571328591528 -0.089109568904056135619 0.61127498576138949993;-0.21100946640484041783 0.28492887890061052714 0.25205771864287601636 -0.081911979013973693076 0.26775967239170211931 0.24495008841083554252 -0.12006186244951361219 -0.14463719815717906991 1.2662100586261302304 -0.12618688659118204587 0.15833044667560083885 0.34784484057845937999 0.019668371571145561866 0.49784546246537131342 0.32132325139333989261 -0.28083757763610778246 -0.018133566926378675427 0.26531595397348367582 0.41034076076509057307 0.031649614961015336279 -0.34054354204095010905 0.6757121870068181213 -0.41021902711474100833 0.22837974926816281829 0.18713464237378335531 -0.067369848861389095007 0.11300642052714424124 -0.19291297411751895385 -0.85838066829881287667 0.072136599072725349213;-0.34460217277868765429 -0.087181609557910377806 0.25043986748528773711 -0.13502772218726064035 -0.41183748881213549931 -0.10501575290393770634 -0.55439827249742956727 0.34063471865092531665 -0.73968090197681646281 -0.11160440720705060158 -0.37777171829974770523 0.66476965990045866484 0.14123700773301481326 -0.070504343594387050564 0.23876879499595896061 -0.13945597893824518421 -0.19257342836042024015 0.13272877618228604013 0.17789942843300049491 -0.83136507725117847478 0.076826947423369443269 0.30575305189294366137 0.17219321916622992719 -0.81480087777624998768 -0.15760518151915747787 -0.76994705639730198765 0.65935452322435972317 0.1520187966274920699 0.29345341836859817342 0.52998511851280016849;0.10392814000026548427 0.21950710824881594641 -0.60642783682277534574 0.17347271614704520837 -0.24037682600945226019 -0.32891654396134251126 -0.031059512057574182459 0.16023786787382024444 0.39090096115054118187 -0.047798130949628592212 -0.26690726969407652103 0.45846991499938660741 -0.041617630214522860488 -0.15229176746590930569 0.49980052487160864239 -0.51193947072012968569 0.17221763588379315757 -0.32524049650376424259 0.16685390645989381375 0.14599601562241232289 0.26207771091669962438 -0.029953576811104127425 -0.12075779018894949868 -0.29446576238167621042 -0.21264930299376810785 0.16521285173443966965 0.18063615400705540504 -0.1485344426838708376 0.17335493492233647328 0.24179916645655219476;0.027003615776445298591 -0.10303120391833632541 -0.0063684433236693635538 -0.25376365103386017141 -0.0980344655798300324 0.059916020280436778356 0.079105764180995519208 0.55980164298678991575 0.25131194384209670778 0.021139076064325652143 0.22956304131812962921 0.21014385940264798669 -0.37328931605333676158 0.36677863436660551599 -0.22921872503805895693 -0.25395947455388367953 0.70251613087914721589 0.18677080534847653737 0.51981818092074272286 -0.0041773953795051768298 0.30970082213384386716 0.20696132577872125569 0.15103341710393461406 -0.20208278835880241764 -0.38664440258484844559 -0.042685298444139159468 -0.45267919932750744216 0.20052728069327233063 0.062793115821065226267 -0.22738286050086978229;0.21664169914441477882 0.24981557504520823798 0.37345832707597914624 -0.060126190861781253494 -0.45549290293713712297 0.86816239544616957691 0.064609653574760006478 -0.16163656307873550122 -0.31101503795570678568 0.67671108782969979778 0.245754251302397142 0.22944243076945733395 -0.44330655468832919075 -0.21127695077052432993 0.42049878951677405192 -0.063009631985022407363 -0.16330139412602440174 -0.52622361127186167984 -0.55346156184260386635 -0.38697183443240856793 0.24248734156582749111 0.6888166861444522393 -0.86379212365385360517 -0.18195943302497169514 -0.28384009993897113544 0.027782658636636384242 0.20745616874845101973 -0.30287248389026200091 -0.69237735354090168549 0.26807696444027767635;-0.012343042574202441053 0.1776099076490147699 -0.095266417720567389549 -0.11265399629396062597 -0.10698542631405823233 0.031611992259032183072 -0.15616757300072914294 0.32861864559611020375 -0.23036253203238571396 -0.35381813385020527418 -0.13098963055123769017 -0.31050195256530083165 0.41253246679176674983 0.12069128515124140366 0.18603468894268476719 0.11266822469778667304 -0.17322397014984430852 -0.31322527808205574695 0.28598850208981152488 -0.11789809366842203542 0.1824164074047242845 0.17317438893858899673 -0.285739974120019391 -0.21626019699575158017 -0.28501539814855908483 0.20607247285895904931 0.27873502176235342986 0.083083704369738178852 -0.18508471134303755568 -0.2782575613508942447];

% Layer 4
b4 = [0.75434554513662765984;-0.76206515155429699337;0.59097158834473151323;-0.44993198727157268646;0.20207780951528750424;-0.32279914906166301547;-0.2757385051074033866;-0.41083097209022378937;-0.03993747881958029794;-0.54889977392145550272;0.60490953562205374006;0.65556181871067431555;0.58936891283832226751;0.88353794218030112795];
LW4_3 = [-0.28208365950896624463 0.14546116736853850759 0.20287957516749871578 0.48844692420733210048 0.0096722601544736875462 0.39109709542969917084 0.055770259053130023796 -0.59423933493090053126 0.40636398396110851028 0.093815830803358951639 0.066771282634787335053 0.117238818436592937 0.13641485853458665267 -0.056197576306938258617 -0.60355443119676321917 0.13620539441710516337 -0.47604627564870244383 0.82872192795486954164 -0.16567862443591080401 0.17129548458590213023 -0.17420124888554153197 -0.3385842206278877331;0.34442545941836394396 0.35054524626074762272 0.3926001415941154371 0.86776507468662000822 -0.276325710599244323 -0.66208889546162685846 -0.65356590238954270777 -0.33095526855198498239 0.80672995166500671704 0.60104944631807355471 0.05711329348069105194 -0.43362329666089427516 -1.1062713753567288144 0.27073365944983335263 -0.40196115837366219736 0.17075421974782428736 -0.067721690238337198253 0.071445038227637980288 -0.18143231675055196406 -0.16797511073031470841 -0.042258841619392369104 -0.42864857319334570551;0.018276011180553868724 -0.109672947942626553 -0.18990788788015103283 0.16200670131388131279 -0.17403989352733631457 -0.12484738722359943475 -1.217082073088643579 1.4289362839234043268 -0.42089988403846018139 -0.444695112511666657 -0.32619336316402558484 -0.44487074333524173619 -0.4288864482927011168 0.10330927148944141214 0.49620717095695476839 0.28536610724535710348 0.14822173325136495103 0.25347197089576734008 0.2469432897487271461 -0.10366855135591970805 0.62710889356645704851 -0.10991453305929621553;0.35948278258058030676 0.17637428442264801998 0.16563286390782247515 -0.1977409186814443609 0.053530934258584753072 0.02613570668382682316 0.36819548436589039087 0.82608043847638534807 -0.64520502052773720525 0.62000649431523147115 -0.29699387311344616069 -0.41693896274065644914 0.25500299650997954037 -0.1133451656721298495 -0.28261819682231864581 0.046701770956396375378 -0.18782506041769295169 -0.037094948897502068308 0.22249311188157169794 -0.083401695134122946773 -0.54072904036509816805 0.042331460890504983563;-0.31360129956666449313 0.10106299670417386027 -0.15469066894743954688 -0.75632799633903846637 -0.60580647731106240794 -0.24557933366728915137 0.31461754213556147874 -0.28972873315612523992 0.71397779493890400904 -0.78045963085518943458 -0.15522989798173356113 0.014532771827305246762 0.19358256343746807482 -0.1167299719054705337 1.1942777731779887773 0.26266994802781368223 -0.068106704169137791127 0.086817650286586042774 0.61940986479499782202 0.36980226347150396693 0.26734563186142373814 -0.16354620494672297837;0.42301467792084218589 -0.028334401904608664396 0.38266455619013683975 0.012253507637182565679 -0.057637087197652335513 0.59903420961927300592 -0.022294144299254609054 0.55002011510994253118 0.40052321485862285577 -1.5823348431175348061 -0.056320668513295993329 0.089305000779315149573 0.29526036149831763611 -0.63070701934284389978 -0.41664265585516113699 -1.5844229935115572427 -0.54009510955618456052 0.36715526072508591904 -0.34777100121985093928 -0.19387718069913079111 -1.1664216137643648175 0.15697671516863614949;0.060846381378781282112 -0.0053332794161116831022 0.25809820442822289932 -0.62555396314487565768 0.24591378410482495065 -0.8649697568215314325 -1.3183439921816588747 -0.46415875030469533336 0.33783519185016813724 -0.020320900453435424005 0.69024804372323678159 0.1844752695224589345 -0.12904038157953237609 -0.60507673028644604063 -0.32715970677051209314 -0.055208232006813975912 0.65743431105281702198 0.95381106469114207425 0.52095568713251905191 0.35080967871595564178 0.16452535206432386539 -0.054412949641235906773;-0.41874465206317251775 -0.74988804005446885181 0.17121830219834507925 -0.52195548292197435636 -0.55576057208096563134 0.60531108284090617833 -0.95774852399931598157 -0.23437429018920322155 0.52212236881894080742 -0.29010942912161918894 0.52139012826900055231 0.9178765655731323525 1.3698862401575728764 0.55367501635961158257 0.58301466266016821471 1.024565228421942642 -0.24983272317072441338 -1.0356170414310248429 -0.26950856734468386922 0.00844600374759849927 0.31881328707505646181 0.32091812190015656103;-0.050858789084716110596 -0.01178649946008393512 -0.3993207213627295582 0.069755093468656784172 -0.64673745260628556775 -0.050056801231490921644 0.4788451143294144563 0.3058725521791455515 -0.029344092503493832136 -0.67741544624555893872 0.22979753615448197945 0.079022451785369790533 0.51129515977858164266 0.14412404132741302165 -0.66367162262335088752 0.39276852432397291182 0.57934956418686989199 -0.21921807402623325056 0.37509306011167459216 -0.24274395321181893581 0.09627402815828786653 0.12651521063657758526;-0.17906543086330714565 -0.014917245841984956567 0.56096482995988639075 0.77025490449931699466 0.24077613109572737482 0.32294907953436768899 0.39479675897175009469 0.78979000108243369027 -0.61085993501911106662 -0.35092502212082316015 -0.31627447678890063809 0.70264718898833089522 -0.22707489950250550614 0.65475680532685431867 -0.50396774317786019459 0.48033058235985554019 0.30747538030988597058 -0.51929841342794802461 -0.099450712150173023463 0.030256635050228304629 -0.89278473718071604814 0.25166526677530082212;-0.16321874171569372702 0.15009295491861990302 -0.13985604830761347306 0.17120118212762017174 0.0147978837427021441 0.022180067568909021813 0.43486596331484805855 -0.27904200694203962207 0.33556097306517518319 0.33041396793302829638 1.0110206566035806475 0.14078624910404693993 0.29105828729308430569 -1.040747847433104889 0.29383077266555279738 0.07041749994201242091 0.46751579269019838403 -0.40685467506516775904 -0.15016400686277478482 0.96388445886607843072 0.34345017994221488378 -0.080650492697760201022;0.031471415940775272768 0.076866395430139330958 -0.2537815457455097623 -0.68045390765007585099 0.50369726338098808061 -0.3967336020647884709 0.67165206236019225905 -0.11523035084465645117 -0.2686354179860346858 -0.98704428168859104087 0.22099365387588698617 -0.26007396537977645057 -0.42375681568137074651 -0.60519297432947316562 0.00060179612567996527799 0.35093578258524626978 0.017465101949838326284 -0.13483587569912036663 -0.054285343363540516926 -0.21447593311439705488 -0.12457653080740316298 -0.005420706313747122862;0.23957732823155850066 0.13677920496985171428 -0.022432601135787696989 0.45896271331824950446 -0.30052245709788727446 0.19315888685940221792 0.032487084058098032735 0.21323585765164029815 -0.034197697728975129383 -0.21332586282208784723 0.44947442385642566443 0.34163748056315063062 -0.22380564262633925732 0.57403387956249596336 -0.5156460673373887138 0.11048483090766132719 0.10010995547773790526 0.29918513273210112224 0.16833956090645388337 -0.10963662216256267468 -0.094085338850571798019 -0.38107855684164826382;0.36492677006965545949 -0.23744612980129117807 -0.2182300968599811819 0.39388565116095342056 0.35768546509568127645 -0.57154847825638943615 0.22361609519805922264 -0.01209810705410722248 -0.28898175264922970618 -0.27304200512492654562 0.22097256150535724006 -0.3111329342996856373 -0.083697211570226665023 -0.058253690642638113195 -0.3470258254050822555 0.85879105397792232512 -0.24511815788002588867 -0.35786787124407459793 0.18328451699221079418 -0.020728506359550005061 0.94712776838232537457 -0.18192773974544113047];

% Layer 5
b5 = [0.96448817259068497787;-0.90225338791630460555;-0.99878468560065747361;-0.78454217331260367452;-0.71608047600631574703;0.62281572210342317497;0.60909265886993624317;0.53492545583494233163;0.38988430292386061504;0.17820349077930003334;-0.054301639638100397678;-0.095112566304996010169;-0.11208778800054224056;0.17865548168728073719;-0.080407039701639704266;0.13388378858206778643;-0.58768983784510209212;-0.2875426699996818658;0.38009247993733713544;-0.65581971332699728894;-0.59924041616632228724;-0.68881448939805567377;0.60124322845932132164;-0.67766545366185737542;-0.88819390101890693945;0.87657321573958724148;-0.97254623184562449811];
LW5_4 = [-0.28019935682162616652 -0.24487252669679732131 -0.42380364111614055034 -0.087968372730543351046 -0.034898007207582265599 0.39794873251256240865 -0.051354436673223702314 -0.51852723514875809219 -0.2468723883099464278 -0.12321746712043429861 0.64991949190891262766 -0.07135892922711126185 0.39959406701559341268 -0.038212563941785529509;0.11833196628639998382 -0.6694417681294974054 -0.7604286240558273402 0.41121955238457191806 -0.14578117868684356551 -1.8304812405773238648 0.22725911228289707999 1.3749961890495465688 0.024546085228877384532 0.090670444779944361913 0.86829253661173000367 0.85926167132090447431 0.043864373493279866512 0.65596195786999833555;-0.078741743154778665037 0.52747664758039980448 0.012320001214340691592 0.72144564556833590263 -0.19463545340592364186 -0.2980158501727303566 -0.05710141623847797554 -0.552084164728490423 -0.0071694565780141732494 0.47321665414268976324 0.090536882730345144554 0.12037368427308096919 -0.27696287285943471668 -0.059543433550830381085;0.23709462297957553667 0.28441281181839056513 0.54736480429268763448 -0.30541511403022741922 -0.17035533837361244158 -0.12196105293152477433 0.26005073485070484551 0.0052839614148833136814 -0.099930913865175816091 0.10887221588297824049 -0.0062033105853876759073 0.29127300970600700225 0.050092767245888160377 0.56426439780031345528;0.78572172892444003267 -0.22573396779141921553 -0.19554699523705149078 -0.10114020352449305806 -0.68718086419221358074 0.768529316396249218 0.46759087813805244593 -0.15447922580281689409 0.12311374111926300101 0.37871730338986570041 -0.083130086158415966713 -0.62606370511403297563 0.27058057743355257152 0.21752076333006351017;0.28630106226019591542 0.60623811118324211211 -0.86101771955729156094 -0.40984508433724442522 0.0062874485681801558709 0.033288572309111280623 0.64814141551491721849 -0.23329157055495924888 0.38266842444280685376 0.2286501047718940971 -0.62924127008249075566 0.34097936073006129831 0.083644128327394984268 -0.41450772034734834071;-0.33368703858500875503 -0.92332319460520806409 -0.55445758635881681187 -0.54574447209826226768 0.88709832183211323464 0.43429851966150001541 -0.14373517000447749714 -0.087698983128658841713 0.23704242727797833479 0.37156354427342130897 -0.20455334076639739016 -0.21090731535252590922 0.086446919100265431912 0.64248354169495525134;-0.52708503445068188853 0.34111233504377974635 -0.84186693358627162631 0.26106701798630993494 0.39346913643637704272 -0.16510332205523986504 -0.78323393500741689266 -0.88423816143959232949 -0.32841252692736072616 0.51599519957055406394 0.40062535246127828348 -0.31605412083180328686 -0.35713993632090745844 0.21437499719338554138;-0.073644643931986927821 -0.30661879746985548634 -0.079201292884061802457 0.1724312196909962569 0.20462181868911102911 0.22168334053299026953 -0.46068038454433868356 0.37335775804365445296 0.38928589096761007093 -0.63451802290438497067 -0.12374308175865293691 0.0024380148947861150603 0.23053626890843265107 0.51226074405653632127;-0.44412620725632301344 -0.55484485262409843909 0.077983448807871627584 0.49257550203040095793 -0.18454793055351625952 -0.085957040747734983488 -0.08110530148987303567 0.46712222983455042868 -0.41200733453577947918 0.50216406709703265143 -0.066917214028178795271 -0.3923650068990183204 -0.54295934933096523523 0.081730711649429285681;0.30141167041157085338 -0.40670530295784196317 -0.16899862899653853021 0.41845689495872412378 -0.522799889048032429 -0.68456267841852957989 0.90755938459681828601 -0.32668502278793970506 0.87505215313305872993 1.3265685406595699725 0.13637116450568917414 0.17266393202754728997 -0.41568249705599569221 -0.34140900876345214865;-0.12289383966436169537 -0.20671591306005174249 -0.2958860460482871102 0.21096775486613064676 -0.36923535639887722359 0.75257439111876855975 -0.27823808473852679191 -0.74102389908213928127 0.18428525447871305087 -0.28882274472393443254 -0.57640333471026361511 0.68881597110664061212 -0.29916590703878453983 0.3045153293902363445;-0.11869546394974067605 0.096631119761945424851 -0.13597083609754453959 0.02834752366863477549 -0.04989354984063377324 0.41336892060607888233 -0.0040970775866228919398 0.01724302602213085775 0.18079202192846419162 -0.5954669840012262183 0.079177113478491434329 -0.73100780657337394164 0.53178212008343095363 -0.78741864239901415701;1.1933621571221195712 -0.30765619880218098015 -0.81861503772498667164 -0.1639700562648457316 -0.45745166296775113812 0.65348640942650038088 -1.2608155292969855932 0.018960550638978276167 0.3178202659782419226 0.67558865001763335201 -0.33795408195226134263 0.28491652772502806812 0.57276148024061190878 0.54310525309605961475;-0.51246962064783030399 0.36799332904639453501 -0.049760133148738276698 0.47255220083642451856 0.021915861044694631699 0.097452808333618759495 -0.20371592882277181347 -0.11799203857918673377 -0.075218997972380963191 -0.23830849128533229675 -0.15866664847354070011 0.099026700579678633707 -0.11591847945294132816 -0.42702812190875266696;-0.29017551568277233365 0.095801634647295186298 0.60750665563409300685 0.015754287163554137746 0.17113860573126318809 -0.18545004640286280595 -0.35771968790507280289 -0.25976845973131540424 0.22298947630267712539 -0.67433079770158221855 0.17884167826564484338 -0.12445615005773105755 0.18957447352924813866 0.77467116826191473322;-0.23598452929236304887 0.36204757099852558078 -0.17466440701319352335 -0.55161670715470145776 -0.41564779710464277995 0.15743335567771629679 0.0025668956775942554718 0.79652730294566409519 -0.21638398825362725741 -0.28492218860313234252 -0.21216260301561243318 0.15596226445077590594 -0.65067669958727547552 0.10020583981201119927;-0.071092106501587759571 0.064455615253300554968 0.26266684521946853659 0.43861296948151851094 -0.23091029308693730715 -0.17914430946263404376 -0.29860735717536374123 -0.16234484747845584485 0.34761233869517838002 0.4900957850919984149 0.14246072426823647161 -0.49203942098837122332 -0.34869762410968724309 0.38990427832769264382;0.126848465167810176 0.00024215369957994445425 0.71889026652806642392 -0.035043240252473809027 0.054929456153281479291 -0.94215392149011689682 -0.078126001248914445085 0.079133629825296841753 -0.28237698387297738289 0.21547217999413612044 -0.10452994663708348178 -0.13380708423467760348 0.60999748120560948195 0.70509709702226586181;0.20540438421686979531 -1.2785289072185110903 0.28612814862350299805 -0.33917708743118651915 -0.16571791542382441342 -0.38544781724920906818 -0.3408545966477108391 0.70554507523938014835 0.083513382082852041788 0.14726509539441490215 1.0444846733826478324 0.091124593193019853832 -0.57641099879176849186 0.46467494422965682777;-0.19192546298833607077 0.30747621378693162919 0.46327047045428709771 0.12774334154574346067 0.14491756205459133122 -0.14386445076982548597 0.23947513401625722396 0.41978121498748965923 0.13120920603563324125 -0.25102765141911703717 0.29027618585074166369 -0.043906479820237903633 -0.22485313352077093696 0.29963011032338698891;-0.38965251882681950502 -0.37112586141562137199 0.26212698450376759052 -0.21672811830335927952 0.22963861407558147643 0.10040407162524668527 -0.29315645749419899646 0.2722832354411781064 -0.20659351925028901498 0.0071228006259800745112 0.19688434178482935866 0.32340622965247273202 -0.2529131116839644644 -0.31148253465090786074;0.018821827170794037942 -0.33287278426168021017 0.069474143648891151237 0.11810960655505911565 -0.15002972409777007301 0.55342239293279316126 -0.47715965242543068037 0.0021793873355106041859 -0.33473855768001603561 0.16727712141586156824 -0.30599785823912173388 -0.87989345887241188215 -0.37141905365751071155 0.43995294044991950511;-0.21339813907632929069 -0.008801484702577199587 -0.37016034476673059794 0.17939146605691316805 -0.3430232789171648311 0.39891721996403917139 0.19122369604601105464 -0.14211879037707461637 0.28164883991180977851 0.2638909264028622137 -0.46371807413075244453 -0.048130810870191227668 -0.18335273008804461869 -0.36581731212582935253;-0.12351058246282198283 0.3182083377004820135 0.086971893768005972825 -0.086043123818371383682 -0.067465850226654508481 -0.69723252528513590676 0.08924403243584026757 0.3999395460685383763 -0.14515481393830986789 0.58607253650342694407 -0.15756477867589605002 -0.19187101416525470521 -0.3614799986287794975 -0.23079336842067449398;0.038269464414612278103 0.43062198048740440992 -0.060170178433911647442 -0.71241591471184129158 0.29180854454926119512 -0.043531066143719057693 0.033315215467498437985 0.23903717403089522198 -0.61707517090875418919 -0.68631600043364660024 0.41350436894520198328 0.21202619322950916336 -0.82671447063626057883 -0.32437314894056556991;0.03824005770245209046 0.2594018150564416092 0.15178786461250745599 -0.55753491520184106367 0.17960223593689672583 -0.33741392127600700057 -0.46560653095024284731 -0.50676260230972158816 -0.66267728063884456802 -0.39526304331298317551 -0.093445105872566741612 0.32018697725644951202 -0.3615578292738969024 0.27297208037998660357];

% Layer 6
b6 = 0.13913864279247953326;
LW6_5 = [0.53920754898540723676 1.4944080712195471072 -0.80220431254132018584 -0.46459132465250985167 0.96040960206172654168 1.0204831799139875148 1.1241253983596810606 1.1152995155620455403 -0.51132358259484222973 -0.78526950165131259585 -1.218455018569193804 -0.81057219794705792637 0.89095571861554490045 -1.586620486564164656 0.054556820971534775166 -0.51452850123240434499 -1.1350226456432928046 0.32172108810562033421 0.9437995494066866442 -1.3508287513576280325 0.1388388883850734945 -0.2130603706239012074 -0.75928913390782515336 0.31578979661470274465 -0.8546333946613645649 -1.0308184015329955319 -0.88735038781652642026];

% Output 1
y1_step1.ymin = -1;
y1_step1.gain = 0.000499130752884102;
y1_step1.xoffset = -32.40814643;

% ===== SIMULATION ========

% Format Input Arguments
isCellX = iscell(X);
if ~isCellX
  X = {X};
end

% Dimensions
TS = size(X,2); % timesteps
if ~isempty(X)
  Q = size(X{1},2); % samples/series
else
  Q = 0;
end

% Allocate Outputs
Y = cell(1,TS);

% Time loop
for ts=1:TS

    % Input 1
    Xp1 = mapminmax_apply(X{1,ts},x1_step1);
    
    % Layer 1
    a1 = tansig_apply(repmat(b1,1,Q) + IW1_1*Xp1);
    
    % Layer 2
    a2 = tansig_apply(repmat(b2,1,Q) + LW2_1*a1);
    
    % Layer 3
    a3 = tansig_apply(repmat(b3,1,Q) + LW3_2*a2);
    
    % Layer 4
    a4 = tansig_apply(repmat(b4,1,Q) + LW4_3*a3);
    
    % Layer 5
    a5 = tansig_apply(repmat(b5,1,Q) + LW5_4*a4);
    
    % Layer 6
    a6 = repmat(b6,1,Q) + LW6_5*a5;
    
    % Output 1
    Y{1,ts} = mapminmax_reverse(a6,y1_step1);
end

% Final Delay States
Xf = cell(1,0);
Af = cell(6,0);

% Format Output Arguments
if ~isCellX
  Y = cell2mat(Y);
end
end

% ===== MODULE FUNCTIONS ========

% Map Minimum and Maximum Input Processing Function
function y = mapminmax_apply(x,settings)
  y = bsxfun(@minus,x,settings.xoffset);
  y = bsxfun(@times,y,settings.gain);
  y = bsxfun(@plus,y,settings.ymin);
end

% Sigmoid Symmetric Transfer Function
function a = tansig_apply(n,~)
  a = 2 ./ (1 + exp(-2*n)) - 1;
end

% Map Minimum and Maximum Output Reverse-Processing Function
function x = mapminmax_reverse(y,settings)
  x = bsxfun(@minus,y,settings.ymin);
  x = bsxfun(@rdivide,x,settings.gain);
  x = bsxfun(@plus,x,settings.xoffset);
end
